<?xml version="1.0"?>
<opencv_storage>
<cascade>
  <stageType>BOOST</stageType>
  <featureType>HAAR</featureType>
  <height>30</height>
  <width>40</width>
  <stageParams>
    <boostType>GAB</boostType>
    <minHitRate>9.9500000476837158e-01</minHitRate>
    <maxFalseAlarm>5.0000000000000000e-01</maxFalseAlarm>
    <weightTrimRate>9.4999999999999996e-01</weightTrimRate>
    <maxDepth>1</maxDepth>
    <maxWeakCount>100</maxWeakCount></stageParams>
  <featureParams>
    <maxCatCount>0</maxCatCount>
    <featSize>1</featSize>
    <mode>BASIC</mode></featureParams>
  <stageNum>13</stageNum>
  <stages>
    <!-- stage 0 -->
    <_>
      <maxWeakCount>2</maxWeakCount>
      <stageThreshold>3.6649622488766909e-03</stageThreshold>
      <weakClassifiers>
        <_>
          <internalNodes>
            0 -1 5 2.7320057153701782e-02</internalNodes>
          <leafValues>
            -9.6747964620590210e-01 9.5778363943099976e-01</leafValues></_>
        <_>
          <internalNodes>
            0 -1 35 -2.1256502717733383e-02</internalNodes>
          <leafValues>
            9.7114461660385132e-01 -9.3666321039199829e-01</leafValues></_></weakClassifiers></_>
    <!-- stage 1 -->
    <_>
      <maxWeakCount>2</maxWeakCount>
      <stageThreshold>-6.8929724395275116e-02</stageThreshold>
      <weakClassifiers>
        <_>
          <internalNodes>
            0 -1 33 -6.5057855099439621e-03</internalNodes>
          <leafValues>
            -9.2929291725158691e-01 9.4039732217788696e-01</leafValues></_>
        <_>
          <internalNodes>
            0 -1 27 -1.6714554280042648e-02</internalNodes>
          <leafValues>
            8.6036318540573120e-01 -9.3779134750366211e-01</leafValues></_></weakClassifiers></_>
    <!-- stage 2 -->
    <_>
      <maxWeakCount>3</maxWeakCount>
      <stageThreshold>-7.1466863155364990e-01</stageThreshold>
      <weakClassifiers>
        <_>
          <internalNodes>
            0 -1 9 -3.6369197070598602e-02</internalNodes>
          <leafValues>
            9.2901879549026489e-01 -7.8551268577575684e-01</leafValues></_>
        <_>
          <internalNodes>
            0 -1 1 -5.5227489210665226e-03</internalNodes>
          <leafValues>
            -8.1983256340026855e-01 8.8523244857788086e-01</leafValues></_>
        <_>
          <internalNodes>
            0 -1 3 4.2407412081956863e-02</internalNodes>
          <leafValues>
            -8.1438839435577393e-01 8.9623570442199707e-01</leafValues></_></weakClassifiers></_>
    <!-- stage 3 -->
    <_>
      <maxWeakCount>3</maxWeakCount>
      <stageThreshold>-8.6489731073379517e-01</stageThreshold>
      <weakClassifiers>
        <_>
          <internalNodes>
            0 -1 34 -4.5398116111755371e-02</internalNodes>
          <leafValues>
            9.0179806947708130e-01 -7.6280832290649414e-01</leafValues></_>
        <_>
          <internalNodes>
            0 -1 24 3.4650512970983982e-03</internalNodes>
          <leafValues>
            -8.2000732421875000e-01 7.9899555444717407e-01</leafValues></_>
        <_>
          <internalNodes>
            0 -1 12 7.0483903400599957e-03</internalNodes>
          <leafValues>
            -8.2014584541320801e-01 7.1791833639144897e-01</leafValues></_></weakClassifiers></_>
    <!-- stage 4 -->
    <_>
      <maxWeakCount>3</maxWeakCount>
      <stageThreshold>-8.7144321203231812e-01</stageThreshold>
      <weakClassifiers>
        <_>
          <internalNodes>
            0 -1 19 -8.2561615854501724e-03</internalNodes>
          <leafValues>
            8.7307947874069214e-01 -8.0458623170852661e-01</leafValues></_>
        <_>
          <internalNodes>
            0 -1 7 6.1713354662060738e-03</internalNodes>
          <leafValues>
            -7.5551944971084595e-01 8.4850579500198364e-01</leafValues></_>
        <_>
          <internalNodes>
            0 -1 6 1.5214940533041954e-02</internalNodes>
          <leafValues>
            -8.5577756166458130e-01 6.8866246938705444e-01</leafValues></_></weakClassifiers></_>
    <!-- stage 5 -->
    <_>
      <maxWeakCount>3</maxWeakCount>
      <stageThreshold>-8.8738071918487549e-01</stageThreshold>
      <weakClassifiers>
        <_>
          <internalNodes>
            0 -1 10 3.1994014978408813e-02</internalNodes>
          <leafValues>
            -8.0246913433074951e-01 8.3769631385803223e-01</leafValues></_>
        <_>
          <internalNodes>
            0 -1 18 6.4487652853131294e-03</internalNodes>
          <leafValues>
            -7.7327585220336914e-01 7.6432323455810547e-01</leafValues></_>
        <_>
          <internalNodes>
            0 -1 29 -1.8768902868032455e-02</internalNodes>
          <leafValues>
            6.8836420774459839e-01 -7.6916164159774780e-01</leafValues></_></weakClassifiers></_>
    <!-- stage 6 -->
    <_>
      <maxWeakCount>3</maxWeakCount>
      <stageThreshold>-6.8309611082077026e-01</stageThreshold>
      <weakClassifiers>
        <_>
          <internalNodes>
            0 -1 32 1.2473817914724350e-02</internalNodes>
          <leafValues>
            -7.6307362318038940e-01 7.7735126018524170e-01</leafValues></_>
        <_>
          <internalNodes>
            0 -1 13 4.4877514243125916e-02</internalNodes>
          <leafValues>
            -6.7555207014083862e-01 8.1079268455505371e-01</leafValues></_>
        <_>
          <internalNodes>
            0 -1 17 -4.0578320622444153e-02</internalNodes>
          <leafValues>
            7.5552958250045776e-01 -6.6774094104766846e-01</leafValues></_></weakClassifiers></_>
    <!-- stage 7 -->
    <_>
      <maxWeakCount>2</maxWeakCount>
      <stageThreshold>-1.2884643673896790e-01</stageThreshold>
      <weakClassifiers>
        <_>
          <internalNodes>
            0 -1 15 -8.9115975424647331e-03</internalNodes>
          <leafValues>
            7.3582631349563599e-01 -8.5510689020156860e-01</leafValues></_>
        <_>
          <internalNodes>
            0 -1 36 -4.6162031590938568e-02</internalNodes>
          <leafValues>
            7.2626048326492310e-01 -7.3515629768371582e-01</leafValues></_></weakClassifiers></_>
    <!-- stage 8 -->
    <_>
      <maxWeakCount>2</maxWeakCount>
      <stageThreshold>-2.1580639481544495e-01</stageThreshold>
      <weakClassifiers>
        <_>
          <internalNodes>
            0 -1 25 -4.3477066792547703e-03</internalNodes>
          <leafValues>
            7.3792272806167603e-01 -8.5545021295547485e-01</leafValues></_>
        <_>
          <internalNodes>
            0 -1 4 4.1067287325859070e-02</internalNodes>
          <leafValues>
            -8.8275295495986938e-01 6.3964384794235229e-01</leafValues></_></weakClassifiers></_>
    <!-- stage 9 -->
    <_>
      <maxWeakCount>2</maxWeakCount>
      <stageThreshold>-2.0663554966449738e-01</stageThreshold>
      <weakClassifiers>
        <_>
          <internalNodes>
            0 -1 22 4.2214565910398960e-03</internalNodes>
          <leafValues>
            -7.8004533052444458e-01 7.3423981666564941e-01</leafValues></_>
        <_>
          <internalNodes>
            0 -1 8 2.2163386456668377e-03</internalNodes>
          <leafValues>
            -8.7459725141525269e-01 5.7340979576110840e-01</leafValues></_></weakClassifiers></_>
    <!-- stage 10 -->
    <_>
      <maxWeakCount>4</maxWeakCount>
      <stageThreshold>-1.6077354550361633e-01</stageThreshold>
      <weakClassifiers>
        <_>
          <internalNodes>
            0 -1 30 1.9437361042946577e-03</internalNodes>
          <leafValues>
            -6.6954642534255981e-01 7.1156287193298340e-01</leafValues></_>
        <_>
          <internalNodes>
            0 -1 37 -8.0932937562465668e-03</internalNodes>
          <leafValues>
            6.2257254123687744e-01 -7.3743480443954468e-01</leafValues></_>
        <_>
          <internalNodes>
            0 -1 14 4.9235518090426922e-03</internalNodes>
          <leafValues>
            -6.5043944120407104e-01 6.4955288171768188e-01</leafValues></_>
        <_>
          <internalNodes>
            0 -1 0 -1.4374697580933571e-02</internalNodes>
          <leafValues>
            -7.6335251331329346e-01 6.1265546083450317e-01</leafValues></_></weakClassifiers></_>
    <!-- stage 11 -->
    <_>
      <maxWeakCount>4</maxWeakCount>
      <stageThreshold>-5.9193807840347290e-01</stageThreshold>
      <weakClassifiers>
        <_>
          <internalNodes>
            0 -1 16 -1.1104238219559193e-02</internalNodes>
          <leafValues>
            7.1731007099151611e-01 -7.2930645942687988e-01</leafValues></_>
        <_>
          <internalNodes>
            0 -1 2 3.9843428879976273e-02</internalNodes>
          <leafValues>
            -8.2601189613342285e-01 5.8437746763229370e-01</leafValues></_>
        <_>
          <internalNodes>
            0 -1 23 1.3941284269094467e-02</internalNodes>
          <leafValues>
            -8.7642306089401245e-01 4.7562488913536072e-01</leafValues></_>
        <_>
          <internalNodes>
            0 -1 11 -1.0689078271389008e-01</internalNodes>
          <leafValues>
            4.8775538802146912e-01 -8.4713774919509888e-01</leafValues></_></weakClassifiers></_>
    <!-- stage 12 -->
    <_>
      <maxWeakCount>5</maxWeakCount>
      <stageThreshold>-5.9537351131439209e-01</stageThreshold>
      <weakClassifiers>
        <_>
          <internalNodes>
            0 -1 26 -3.5837705945596099e-04</internalNodes>
          <leafValues>
            7.5646257400512695e-01 -5.9417474269866943e-01</leafValues></_>
        <_>
          <internalNodes>
            0 -1 21 1.8275553593412042e-03</internalNodes>
          <leafValues>
            -5.6403493881225586e-01 7.9776477813720703e-01</leafValues></_>
        <_>
          <internalNodes>
            0 -1 31 3.4239627420902252e-03</internalNodes>
          <leafValues>
            -5.8894950151443481e-01 6.4609754085540771e-01</leafValues></_>
        <_>
          <internalNodes>
            0 -1 28 1.6281720309052616e-04</internalNodes>
          <leafValues>
            -8.8481259346008301e-01 4.3786433339118958e-01</leafValues></_>
        <_>
          <internalNodes>
            0 -1 20 -1.7551581840962172e-03</internalNodes>
          <leafValues>
            7.7813047170639038e-01 -5.2112567424774170e-01</leafValues></_></weakClassifiers></_></stages>
  <features>
    <_>
      <rects>
        <_>
          0 0 1 30 -1.</_>
        <_>
          0 10 1 10 2.</_></rects>
      <tilted>0</tilted></_>
    <_>
      <rects>
        <_>
          0 0 9 1 -1.</_>
        <_>
          3 0 3 1 2.</_></rects>
      <tilted>0</tilted></_>
    <_>
      <rects>
        <_>
          0 1 4 26 -1.</_>
        <_>
          2 1 2 26 2.</_></rects>
      <tilted>0</tilted></_>
    <_>
      <rects>
        <_>
          0 1 4 27 -1.</_>
        <_>
          2 1 2 27 2.</_></rects>
      <tilted>0</tilted></_>
    <_>
      <rects>
        <_>
          0 1 6 14 -1.</_>
        <_>
          3 1 3 14 2.</_></rects>
      <tilted>0</tilted></_>
    <_>
      <rects>
        <_>
          0 1 6 15 -1.</_>
        <_>
          3 1 3 15 2.</_></rects>
      <tilted>0</tilted></_>
    <_>
      <rects>
        <_>
          0 12 4 15 -1.</_>
        <_>
          2 12 2 15 2.</_></rects>
      <tilted>0</tilted></_>
    <_>
      <rects>
        <_>
          0 12 16 4 -1.</_>
        <_>
          0 12 8 2 2.</_>
        <_>
          8 14 8 2 2.</_></rects>
      <tilted>0</tilted></_>
    <_>
      <rects>
        <_>
          0 15 14 1 -1.</_>
        <_>
          7 15 7 1 2.</_></rects>
      <tilted>0</tilted></_>
    <_>
      <rects>
        <_>
          0 26 37 4 -1.</_>
        <_>
          0 28 37 2 2.</_></rects>
      <tilted>0</tilted></_>
    <_>
      <rects>
        <_>
          1 0 39 4 -1.</_>
        <_>
          1 2 39 2 2.</_></rects>
      <tilted>0</tilted></_>
    <_>
      <rects>
        <_>
          1 10 38 20 -1.</_>
        <_>
          1 20 38 10 2.</_></rects>
      <tilted>0</tilted></_>
    <_>
      <rects>
        <_>
          2 0 5 6 -1.</_>
        <_>
          2 3 5 3 2.</_></rects>
      <tilted>0</tilted></_>
    <_>
      <rects>
        <_>
          3 0 35 4 -1.</_>
        <_>
          3 2 35 2 2.</_></rects>
      <tilted>0</tilted></_>
    <_>
      <rects>
        <_>
          4 0 10 2 -1.</_>
        <_>
          4 1 10 1 2.</_></rects>
      <tilted>0</tilted></_>
    <_>
      <rects>
        <_>
          5 7 6 7 -1.</_>
        <_>
          8 7 3 7 2.</_></rects>
      <tilted>0</tilted></_>
    <_>
      <rects>
        <_>
          6 28 31 2 -1.</_>
        <_>
          6 29 31 1 2.</_></rects>
      <tilted>0</tilted></_>
    <_>
      <rects>
        <_>
          7 26 24 4 -1.</_>
        <_>
          7 28 24 2 2.</_></rects>
      <tilted>0</tilted></_>
    <_>
      <rects>
        <_>
          8 12 9 4 -1.</_>
        <_>
          8 14 9 2 2.</_></rects>
      <tilted>0</tilted></_>
    <_>
      <rects>
        <_>
          8 28 30 2 -1.</_>
        <_>
          8 29 30 1 2.</_></rects>
      <tilted>0</tilted></_>
    <_>
      <rects>
        <_>
          9 6 2 6 -1.</_>
        <_>
          9 6 1 3 2.</_>
        <_>
          10 9 1 3 2.</_></rects>
      <tilted>0</tilted></_>
    <_>
      <rects>
        <_>
          12 13 4 4 -1.</_>
        <_>
          12 13 2 2 2.</_>
        <_>
          14 15 2 2 2.</_></rects>
      <tilted>0</tilted></_>
    <_>
      <rects>
        <_>
          13 1 8 6 -1.</_>
        <_>
          13 1 4 3 2.</_>
        <_>
          17 4 4 3 2.</_></rects>
      <tilted>0</tilted></_>
    <_>
      <rects>
        <_>
          14 4 8 10 -1.</_>
        <_>
          18 4 4 10 2.</_></rects>
      <tilted>0</tilted></_>
    <_>
      <rects>
        <_>
          14 12 6 2 -1.</_>
        <_>
          17 12 3 2 2.</_></rects>
      <tilted>0</tilted></_>
    <_>
      <rects>
        <_>
          17 13 6 6 -1.</_>
        <_>
          17 16 6 3 2.</_></rects>
      <tilted>0</tilted></_>
    <_>
      <rects>
        <_>
          18 8 2 3 -1.</_>
        <_>
          19 8 1 3 2.</_></rects>
      <tilted>0</tilted></_>
    <_>
      <rects>
        <_>
          19 4 8 12 -1.</_>
        <_>
          23 4 4 12 2.</_></rects>
      <tilted>0</tilted></_>
    <_>
      <rects>
        <_>
          20 8 1 6 -1.</_>
        <_>
          20 11 1 3 2.</_></rects>
      <tilted>0</tilted></_>
    <_>
      <rects>
        <_>
          21 26 18 4 -1.</_>
        <_>
          21 28 18 2 2.</_></rects>
      <tilted>0</tilted></_>
    <_>
      <rects>
        <_>
          23 12 3 4 -1.</_>
        <_>
          23 14 3 2 2.</_></rects>
      <tilted>0</tilted></_>
    <_>
      <rects>
        <_>
          28 0 1 12 -1.</_>
        <_>
          28 6 1 6 2.</_></rects>
      <tilted>0</tilted></_>
    <_>
      <rects>
        <_>
          30 6 6 8 -1.</_>
        <_>
          33 6 3 8 2.</_></rects>
      <tilted>0</tilted></_>
    <_>
      <rects>
        <_>
          31 29 9 1 -1.</_>
        <_>
          34 29 3 1 2.</_></rects>
      <tilted>0</tilted></_>
    <_>
      <rects>
        <_>
          36 0 4 29 -1.</_>
        <_>
          38 0 2 29 2.</_></rects>
      <tilted>0</tilted></_>
    <_>
      <rects>
        <_>
          36 0 4 30 -1.</_>
        <_>
          38 0 2 30 2.</_></rects>
      <tilted>0</tilted></_>
    <_>
      <rects>
        <_>
          36 3 4 23 -1.</_>
        <_>
          38 3 2 23 2.</_></rects>
      <tilted>0</tilted></_>
    <_>
      <rects>
        <_>
          38 0 2 26 -1.</_>
        <_>
          39 0 1 26 2.</_></rects>
      <tilted>0</tilted></_></features></cascade>
</opencv_storage>
